<?xml version="1.0"?>
<opencv_storage>
<cascade>
  <stageType>BOOST</stageType>
  <featureType>HAAR</featureType>
  <height>32</height>
  <width>32</width>
  <stageParams>
    <boostType>GAB</boostType>
    <minHitRate>9.9500000476837158e-01</minHitRate>
    <maxFalseAlarm>1.0000000149011612e-01</maxFalseAlarm>
    <weightTrimRate>9.4999999999999996e-01</weightTrimRate>
    <maxDepth>1</maxDepth>
    <maxWeakCount>100</maxWeakCount></stageParams>
  <featureParams>
    <maxCatCount>0</maxCatCount>
    <featSize>1</featSize>
    <mode>BASIC</mode></featureParams>
  <stageNum>4</stageNum>
  <stages>
    <!-- stage 0 -->
    <_>
      <maxWeakCount>1</maxWeakCount>
      <stageThreshold>9.9600797891616821e-01</stageThreshold>
      <weakClassifiers>
        <_>
          <internalNodes>
            0 -1 5 -1.7679044976830482e-03</internalNodes>
          <leafValues>
            9.9600797891616821e-01 -1.</leafValues></_></weakClassifiers></_>
    <!-- stage 1 -->
    <_>
      <maxWeakCount>2</maxWeakCount>
      <stageThreshold>-2.1952835842967033e-02</stageThreshold>
      <weakClassifiers>
        <_>
          <internalNodes>
            0 -1 2 1.8880261108279228e-02</internalNodes>
          <leafValues>
            -9.5256918668746948e-01 9.7570848464965820e-01</leafValues></_>
        <_>
          <internalNodes>
            0 -1 8 2.9063668102025986e-02</internalNodes>
          <leafValues>
            -9.9621444940567017e-01 9.3061631917953491e-01</leafValues></_></weakClassifiers></_>
    <!-- stage 2 -->
    <_>
      <maxWeakCount>3</maxWeakCount>
      <stageThreshold>5.9428900480270386e-01</stageThreshold>
      <weakClassifiers>
        <_>
          <internalNodes>
            0 -1 7 4.5434579253196716e-02</internalNodes>
          <leafValues>
            -9.6588486433029175e-01 8.5310733318328857e-01</leafValues></_>
        <_>
          <internalNodes>
            0 -1 3 -2.2311478853225708e-02</internalNodes>
          <leafValues>
            8.4306687116622925e-01 -9.4973474740982056e-01</leafValues></_>
        <_>
          <internalNodes>
            0 -1 4 2.2778613492846489e-03</internalNodes>
          <leafValues>
            -9.9100238084793091e-01 7.1710699796676636e-01</leafValues></_></weakClassifiers></_>
    <!-- stage 3 -->
    <_>
      <maxWeakCount>3</maxWeakCount>
      <stageThreshold>3.9781361818313599e-01</stageThreshold>
      <weakClassifiers>
        <_>
          <internalNodes>
            0 -1 1 7.0023718290030956e-03</internalNodes>
          <leafValues>
            -8.8501024246215820e-01 8.4015595912933350e-01</leafValues></_>
        <_>
          <internalNodes>
            0 -1 6 -2.0395863801240921e-02</internalNodes>
          <leafValues>
            7.5641864538192749e-01 -9.5234936475753784e-01</leafValues></_>
        <_>
          <internalNodes>
            0 -1 0 1.2066029943525791e-02</internalNodes>
          <leafValues>
            -1. 5.2640521526336670e-01</leafValues></_></weakClassifiers></_></stages>
  <features>
    <_>
      <rects>
        <_>
          3 17 22 4 -1.</_>
        <_>
          14 17 11 4 2.</_></rects>
      <tilted>0</tilted></_>
    <_>
      <rects>
        <_>
          3 20 12 1 -1.</_>
        <_>
          7 20 4 1 3.</_></rects>
      <tilted>0</tilted></_>
    <_>
      <rects>
        <_>
          5 16 8 8 -1.</_>
        <_>
          5 16 4 4 2.</_>
        <_>
          9 20 4 4 2.</_></rects>
      <tilted>0</tilted></_>
    <_>
      <rects>
        <_>
          6 12 6 9 -1.</_>
        <_>
          9 12 3 9 2.</_></rects>
      <tilted>0</tilted></_>
    <_>
      <rects>
        <_>
          13 17 3 1 -1.</_>
        <_>
          14 17 1 1 3.</_></rects>
      <tilted>0</tilted></_>
    <_>
      <rects>
        <_>
          14 15 2 1 -1.</_>
        <_>
          15 15 1 1 2.</_></rects>
      <tilted>0</tilted></_>
    <_>
      <rects>
        <_>
          17 14 12 10 -1.</_>
        <_>
          17 14 6 5 2.</_>
        <_>
          23 19 6 5 2.</_></rects>
      <tilted>0</tilted></_>
    <_>
      <rects>
        <_>
          19 12 9 9 -1.</_>
        <_>
          22 12 3 9 3.</_></rects>
      <tilted>0</tilted></_>
    <_>
      <rects>
        <_>
          21 14 10 14 -1.</_>
        <_>
          21 14 5 7 2.</_>
        <_>
          26 21 5 7 2.</_></rects>
      <tilted>0</tilted></_></features></cascade>
</opencv_storage>
