<?xml version="1.0"?>
<opencv_storage>
<cascade>
  <stageType>BOOST</stageType>
  <featureType>HAAR</featureType>
  <height>32</height>
  <width>32</width>
  <stageParams>
    <boostType>GAB</boostType>
    <minHitRate>9.9500000476837158e-01</minHitRate>
    <maxFalseAlarm>1.0000000149011612e-01</maxFalseAlarm>
    <weightTrimRate>9.4999999999999996e-01</weightTrimRate>
    <maxDepth>1</maxDepth>
    <maxWeakCount>100</maxWeakCount></stageParams>
  <featureParams>
    <maxCatCount>0</maxCatCount>
    <featSize>1</featSize>
    <mode>BASIC</mode></featureParams>
  <stageNum>5</stageNum>
  <stages>
    <!-- stage 0 -->
    <_>
      <maxWeakCount>1</maxWeakCount>
      <stageThreshold>9.8807156085968018e-01</stageThreshold>
      <weakClassifiers>
        <_>
          <internalNodes>
            0 -1 9 -9.3496814370155334e-03</internalNodes>
          <leafValues>
            9.8807156085968018e-01 -1.</leafValues></_></weakClassifiers></_>
    <!-- stage 1 -->
    <_>
      <maxWeakCount>2</maxWeakCount>
      <stageThreshold>-1.8826122686732560e-04</stageThreshold>
      <weakClassifiers>
        <_>
          <internalNodes>
            0 -1 6 5.0831250846385956e-03</internalNodes>
          <leafValues>
            -9.5686274766921997e-01 9.9591839313507080e-01</leafValues></_>
        <_>
          <internalNodes>
            0 -1 12 4.7755166888237000e-03</internalNodes>
          <leafValues>
            -9.8838841915130615e-01 9.5667445659637451e-01</leafValues></_></weakClassifiers></_>
    <!-- stage 2 -->
    <_>
      <maxWeakCount>4</maxWeakCount>
      <stageThreshold>-2.6153349876403809e-01</stageThreshold>
      <weakClassifiers>
        <_>
          <internalNodes>
            0 -1 4 3.3822197467088699e-02</internalNodes>
          <leafValues>
            -9.0658175945281982e-01 8.0718338489532471e-01</leafValues></_>
        <_>
          <internalNodes>
            0 -1 2 5.4940231144428253e-02</internalNodes>
          <leafValues>
            -8.4380024671554565e-01 8.2345455884933472e-01</leafValues></_>
        <_>
          <internalNodes>
            0 -1 1 -2.2888239473104477e-03</internalNodes>
          <leafValues>
            8.1181371212005615e-01 -7.9930353164672852e-01</leafValues></_>
        <_>
          <internalNodes>
            0 -1 11 1.5712154563516378e-03</internalNodes>
          <leafValues>
            -8.8005375862121582e-01 6.7703479528427124e-01</leafValues></_></weakClassifiers></_>
    <!-- stage 3 -->
    <_>
      <maxWeakCount>5</maxWeakCount>
      <stageThreshold>-1.0497686862945557e+00</stageThreshold>
      <weakClassifiers>
        <_>
          <internalNodes>
            0 -1 8 1.7364844679832458e-02</internalNodes>
          <leafValues>
            -7.7200001478195190e-01 7.7200001478195190e-01</leafValues></_>
        <_>
          <internalNodes>
            0 -1 15 -4.1786562651395798e-03</internalNodes>
          <leafValues>
            7.4128723144531250e-01 -7.7339637279510498e-01</leafValues></_>
        <_>
          <internalNodes>
            0 -1 0 1.4404729008674622e-02</internalNodes>
          <leafValues>
            -7.2393423318862915e-01 7.1056443452835083e-01</leafValues></_>
        <_>
          <internalNodes>
            0 -1 7 -2.6645902544260025e-03</internalNodes>
          <leafValues>
            5.4722356796264648e-01 -8.7765842676162720e-01</leafValues></_>
        <_>
          <internalNodes>
            0 -1 5 -2.9870457947254181e-03</internalNodes>
          <leafValues>
            5.5322033166885376e-01 -9.3019127845764160e-01</leafValues></_></weakClassifiers></_>
    <!-- stage 4 -->
    <_>
      <maxWeakCount>5</maxWeakCount>
      <stageThreshold>-3.2779160887002945e-02</stageThreshold>
      <weakClassifiers>
        <_>
          <internalNodes>
            0 -1 13 -1.3977824710309505e-03</internalNodes>
          <leafValues>
            7.9158318042755127e-01 -7.8842318058013916e-01</leafValues></_>
        <_>
          <internalNodes>
            0 -1 6 7.3296632617712021e-03</internalNodes>
          <leafValues>
            -7.8949981927871704e-01 7.0411783456802368e-01</leafValues></_>
        <_>
          <internalNodes>
            0 -1 14 7.7533172443509102e-03</internalNodes>
          <leafValues>
            -9.5588719844818115e-01 5.0058448314666748e-01</leafValues></_>
        <_>
          <internalNodes>
            0 -1 10 4.3049356900155544e-03</internalNodes>
          <leafValues>
            -9.3264043331146240e-01 4.5210880041122437e-01</leafValues></_>
        <_>
          <internalNodes>
            0 -1 3 -1.7698921728879213e-03</internalNodes>
          <leafValues>
            5.9245055913925171e-01 -7.3912680149078369e-01</leafValues></_></weakClassifiers></_></stages>
  <features>
    <_>
      <rects>
        <_>
          1 10 6 13 -1.</_>
        <_>
          3 10 2 13 3.</_></rects>
      <tilted>0</tilted></_>
    <_>
      <rects>
        <_>
          7 14 2 4 -1.</_>
        <_>
          8 14 1 4 2.</_></rects>
      <tilted>0</tilted></_>
    <_>
      <rects>
        <_>
          11 15 8 12 -1.</_>
        <_>
          11 19 8 4 3.</_></rects>
      <tilted>0</tilted></_>
    <_>
      <rects>
        <_>
          11 17 3 1 -1.</_>
        <_>
          12 17 1 1 3.</_></rects>
      <tilted>0</tilted></_>
    <_>
      <rects>
        <_>
          12 6 10 9 -1.</_>
        <_>
          12 9 10 3 3.</_></rects>
      <tilted>0</tilted></_>
    <_>
      <rects>
        <_>
          12 10 20 1 -1.</_>
        <_>
          22 10 10 1 2.</_></rects>
      <tilted>0</tilted></_>
    <_>
      <rects>
        <_>
          12 15 3 2 -1.</_>
        <_>
          13 15 1 2 3.</_></rects>
      <tilted>0</tilted></_>
    <_>
      <rects>
        <_>
          12 15 2 6 -1.</_>
        <_>
          12 15 1 3 2.</_>
        <_>
          13 18 1 3 2.</_></rects>
      <tilted>0</tilted></_>
    <_>
      <rects>
        <_>
          14 20 14 6 -1.</_>
        <_>
          14 20 7 3 2.</_>
        <_>
          21 23 7 3 2.</_></rects>
      <tilted>0</tilted></_>
    <_>
      <rects>
        <_>
          15 9 1 15 -1.</_>
        <_>
          15 14 1 5 3.</_></rects>
      <tilted>0</tilted></_>
    <_>
      <rects>
        <_>
          15 13 2 4 -1.</_>
        <_>
          16 13 1 4 2.</_></rects>
      <tilted>0</tilted></_>
    <_>
      <rects>
        <_>
          15 13 2 6 -1.</_>
        <_>
          15 15 2 2 3.</_></rects>
      <tilted>0</tilted></_>
    <_>
      <rects>
        <_>
          15 15 3 2 -1.</_>
        <_>
          16 15 1 2 3.</_></rects>
      <tilted>0</tilted></_>
    <_>
      <rects>
        <_>
          15 17 2 2 -1.</_>
        <_>
          15 18 2 1 2.</_></rects>
      <tilted>0</tilted></_>
    <_>
      <rects>
        <_>
          17 14 12 5 -1.</_>
        <_>
          23 14 6 5 2.</_></rects>
      <tilted>0</tilted></_>
    <_>
      <rects>
        <_>
          23 13 2 7 -1.</_>
        <_>
          24 13 1 7 2.</_></rects>
      <tilted>0</tilted></_></features></cascade>
</opencv_storage>
